digraph Tree {
node [shape=box] ;
0 [label="X[7] <= 34.5\ngini = 0.403\nsamples = 800\nvalue = [224, 576]"] ;
1 [label="X[6] <= 10975.5\ngini = 0.373\nsamples = 669\nvalue = [166, 503]"] ;
0 -> 1 [labeldistance=2.5, labelangle=45, headlabel="True"] ;
2 [label="X[7] <= 11.5\ngini = 0.365\nsamples = 662\nvalue = [159, 503]"] ;
1 -> 2 ;
3 [label="X[0] <= 34.5\ngini = 0.217\nsamples = 137\nvalue = [17, 120]"] ;
2 -> 3 ;
4 [label="X[6] <= 1511.0\ngini = 0.338\nsamples = 65\nvalue = [14, 51]"] ;
3 -> 4 ;
5 [label="X[2] <= 2.5\ngini = 0.432\nsamples = 38\nvalue = [12, 26]"] ;
4 -> 5 ;
6 [label="X[6] <= 931.5\ngini = 0.382\nsamples = 35\nvalue = [9, 26]"] ;
5 -> 6 ;
7 [label="X[6] <= 714.0\ngini = 0.49\nsamples = 14\nvalue = [6, 8]"] ;
6 -> 7 ;
8 [label="X[8] <= 3.5\ngini = 0.397\nsamples = 11\nvalue = [3, 8]"] ;
7 -> 8 ;
9 [label="X[6] <= 388.0\ngini = 0.48\nsamples = 5\nvalue = [3, 2]"] ;
8 -> 9 ;
10 [label="gini = 0.0\nsamples = 2\nvalue = [0, 2]"] ;
9 -> 10 ;
11 [label="gini = 0.0\nsamples = 3\nvalue = [3, 0]"] ;
9 -> 11 ;
12 [label="gini = 0.0\nsamples = 6\nvalue = [0, 6]"] ;
8 -> 12 ;
13 [label="gini = 0.0\nsamples = 3\nvalue = [3, 0]"] ;
7 -> 13 ;
14 [label="X[0] <= 22.5\ngini = 0.245\nsamples = 21\nvalue = [3, 18]"] ;
6 -> 14 ;
15 [label="X[8] <= 4.5\ngini = 0.5\nsamples = 2\nvalue = [1, 1]"] ;
14 -> 15 ;
16 [label="gini = 0.0\nsamples = 1\nvalue = [0, 1]"] ;
15 -> 16 ;
17 [label="gini = 0.0\nsamples = 1\nvalue = [1, 0]"] ;
15 -> 17 ;
18 [label="X[6] <= 1316.0\ngini = 0.188\nsamples = 19\nvalue = [2, 17]"] ;
14 -> 18 ;
19 [label="X[6] <= 1292.0\ngini = 0.298\nsamples = 11\nvalue = [2, 9]"] ;
18 -> 19 ;
20 [label="gini = 0.18\nsamples = 10\nvalue = [1, 9]"] ;
19 -> 20 ;
21 [label="gini = 0.0\nsamples = 1\nvalue = [1, 0]"] ;
19 -> 21 ;
22 [label="gini = 0.0\nsamples = 8\nvalue = [0, 8]"] ;
18 -> 22 ;
23 [label="gini = 0.0\nsamples = 3\nvalue = [3, 0]"] ;
5 -> 23 ;
24 [label="X[0] <= 19.5\ngini = 0.137\nsamples = 27\nvalue = [2, 25]"] ;
4 -> 24 ;
25 [label="gini = 0.0\nsamples = 1\nvalue = [1, 0]"] ;
24 -> 25 ;
26 [label="X[2] <= 1.5\ngini = 0.074\nsamples = 26\nvalue = [1, 25]"] ;
24 -> 26 ;
27 [label="X[3] <= 1.5\ngini = 0.32\nsamples = 5\nvalue = [1, 4]"] ;
26 -> 27 ;
28 [label="gini = 0.0\nsamples = 4\nvalue = [0, 4]"] ;
27 -> 28 ;
29 [label="gini = 0.0\nsamples = 1\nvalue = [1, 0]"] ;
27 -> 29 ;
30 [label="gini = 0.0\nsamples = 21\nvalue = [0, 21]"] ;
26 -> 30 ;
31 [label="X[2] <= 2.5\ngini = 0.08\nsamples = 72\nvalue = [3, 69]"] ;
3 -> 31 ;
32 [label="X[3] <= 0.5\ngini = 0.032\nsamples = 61\nvalue = [1, 60]"] ;
31 -> 32 ;
33 [label="X[5] <= 1.0\ngini = 0.32\nsamples = 5\nvalue = [1, 4]"] ;
32 -> 33 ;
34 [label="gini = 0.0\nsamples = 4\nvalue = [0, 4]"] ;
33 -> 34 ;
35 [label="gini = 0.0\nsamples = 1\nvalue = [1, 0]"] ;
33 -> 35 ;
36 [label="gini = 0.0\nsamples = 56\nvalue = [0, 56]"] ;
32 -> 36 ;
37 [label="X[3] <= 1.5\ngini = 0.298\nsamples = 11\nvalue = [2, 9]"] ;
31 -> 37 ;
38 [label="X[5] <= 0.5\ngini = 0.18\nsamples = 10\nvalue = [1, 9]"] ;
37 -> 38 ;
39 [label="gini = 0.0\nsamples = 6\nvalue = [0, 6]"] ;
38 -> 39 ;
40 [label="X[8] <= 2.0\ngini = 0.375\nsamples = 4\nvalue = [1, 3]"] ;
38 -> 40 ;
41 [label="X[6] <= 4258.5\ngini = 0.5\nsamples = 2\nvalue = [1, 1]"] ;
40 -> 41 ;
42 [label="gini = 0.0\nsamples = 1\nvalue = [1, 0]"] ;
41 -> 42 ;
43 [label="gini = 0.0\nsamples = 1\nvalue = [0, 1]"] ;
41 -> 43 ;
44 [label="gini = 0.0\nsamples = 2\nvalue = [0, 2]"] ;
40 -> 44 ;
45 [label="gini = 0.0\nsamples = 1\nvalue = [1, 0]"] ;
37 -> 45 ;
46 [label="X[6] <= 954.5\ngini = 0.395\nsamples = 525\nvalue = [142, 383]"] ;
2 -> 46 ;
47 [label="X[0] <= 22.5\ngini = 0.498\nsamples = 47\nvalue = [22, 25]"] ;
46 -> 47 ;
48 [label="gini = 0.0\nsamples = 4\nvalue = [4, 0]"] ;
47 -> 48 ;
49 [label="X[6] <= 938.0\ngini = 0.487\nsamples = 43\nvalue = [18, 25]"] ;
47 -> 49 ;
50 [label="X[8] <= 1.5\ngini = 0.469\nsamples = 40\nvalue = [15, 25]"] ;
49 -> 50 ;
51 [label="X[0] <= 47.5\ngini = 0.49\nsamples = 14\nvalue = [8, 6]"] ;
50 -> 51 ;
52 [label="X[6] <= 920.5\ngini = 0.32\nsamples = 10\nvalue = [8, 2]"] ;
51 -> 52 ;
53 [label="X[7] <= 13.0\ngini = 0.198\nsamples = 9\nvalue = [8, 1]"] ;
52 -> 53 ;
54 [label="gini = 0.0\nsamples = 6\nvalue = [6, 0]"] ;
53 -> 54 ;
55 [label="gini = 0.444\nsamples = 3\nvalue = [2, 1]"] ;
53 -> 55 ;
56 [label="gini = 0.0\nsamples = 1\nvalue = [0, 1]"] ;
52 -> 56 ;
57 [label="gini = 0.0\nsamples = 4\nvalue = [0, 4]"] ;
51 -> 57 ;
58 [label="X[6] <= 625.5\ngini = 0.393\nsamples = 26\nvalue = [7, 19]"] ;
50 -> 58 ;
59 [label="gini = 0.0\nsamples = 6\nvalue = [0, 6]"] ;
58 -> 59 ;
60 [label="X[6] <= 803.0\ngini = 0.455\nsamples = 20\nvalue = [7, 13]"] ;
58 -> 60 ;
61 [label="X[0] <= 52.5\ngini = 0.5\nsamples = 14\nvalue = [7, 7]"] ;
60 -> 61 ;
62 [label="gini = 0.486\nsamples = 12\nvalue = [5, 7]"] ;
61 -> 62 ;
63 [label="gini = 0.0\nsamples = 2\nvalue = [2, 0]"] ;
61 -> 63 ;
64 [label="gini = 0.0\nsamples = 6\nvalue = [0, 6]"] ;
60 -> 64 ;
65 [label="gini = 0.0\nsamples = 3\nvalue = [3, 0]"] ;
49 -> 65 ;
66 [label="X[3] <= 1.5\ngini = 0.376\nsamples = 478\nvalue = [120, 358]"] ;
46 -> 66 ;
67 [label="X[6] <= 6846.0\ngini = 0.345\nsamples = 383\nvalue = [85, 298]"] ;
66 -> 67 ;
68 [label="X[7] <= 17.0\ngini = 0.333\nsamples = 365\nvalue = [77, 288]"] ;
67 -> 68 ;
69 [label="X[6] <= 6273.0\ngini = 0.252\nsamples = 122\nvalue = [18, 104]"] ;
68 -> 69 ;
70 [label="X[0] <= 41.0\ngini = 0.242\nsamples = 121\nvalue = [17, 104]"] ;
69 -> 70 ;
71 [label="X[0] <= 39.5\ngini = 0.288\nsamples = 86\nvalue = [15, 71]"] ;
70 -> 71 ;
72 [label="gini = 0.275\nsamples = 85\nvalue = [14, 71]"] ;
71 -> 72 ;
73 [label="gini = 0.0\nsamples = 1\nvalue = [1, 0]"] ;
71 -> 73 ;
74 [label="X[8] <= 5.5\ngini = 0.108\nsamples = 35\nvalue = [2, 33]"] ;
70 -> 74 ;
75 [label="gini = 0.057\nsamples = 34\nvalue = [1, 33]"] ;
74 -> 75 ;
76 [label="gini = 0.0\nsamples = 1\nvalue = [1, 0]"] ;
74 -> 76 ;
77 [label="gini = 0.0\nsamples = 1\nvalue = [1, 0]"] ;
69 -> 77 ;
78 [label="X[2] <= 1.5\ngini = 0.368\nsamples = 243\nvalue = [59, 184]"] ;
68 -> 78 ;
79 [label="X[8] <= 4.5\ngini = 0.492\nsamples = 39\nvalue = [17, 22]"] ;
78 -> 79 ;
80 [label="X[6] <= 1552.5\ngini = 0.493\nsamples = 25\nvalue = [14, 11]"] ;
79 -> 80 ;
81 [label="gini = 0.0\nsamples = 5\nvalue = [5, 0]"] ;
80 -> 81 ;
82 [label="gini = 0.495\nsamples = 20\nvalue = [9, 11]"] ;
80 -> 82 ;
83 [label="X[0] <= 24.5\ngini = 0.337\nsamples = 14\nvalue = [3, 11]"] ;
79 -> 83 ;
84 [label="gini = 0.0\nsamples = 1\nvalue = [1, 0]"] ;
83 -> 84 ;
85 [label="gini = 0.26\nsamples = 13\nvalue = [2, 11]"] ;
83 -> 85 ;
86 [label="X[6] <= 2175.0\ngini = 0.327\nsamples = 204\nvalue = [42, 162]"] ;
78 -> 86 ;
87 [label="X[6] <= 2035.5\ngini = 0.422\nsamples = 66\nvalue = [20, 46]"] ;
86 -> 87 ;
88 [label="gini = 0.383\nsamples = 62\nvalue = [16, 46]"] ;
87 -> 88 ;
89 [label="gini = 0.0\nsamples = 4\nvalue = [4, 0]"] ;
87 -> 89 ;
90 [label="X[6] <= 4049.5\ngini = 0.268\nsamples = 138\nvalue = [22, 116]"] ;
86 -> 90 ;
91 [label="gini = 0.196\nsamples = 91\nvalue = [10, 81]"] ;
90 -> 91 ;
92 [label="gini = 0.38\nsamples = 47\nvalue = [12, 35]"] ;
90 -> 92 ;
93 [label="X[0] <= 48.5\ngini = 0.494\nsamples = 18\nvalue = [8, 10]"] ;
67 -> 93 ;
94 [label="X[7] <= 16.5\ngini = 0.375\nsamples = 12\nvalue = [3, 9]"] ;
93 -> 94 ;
95 [label="gini = 0.0\nsamples = 2\nvalue = [2, 0]"] ;
94 -> 95 ;
96 [label="X[8] <= 0.5\ngini = 0.18\nsamples = 10\nvalue = [1, 9]"] ;
94 -> 96 ;
97 [label="X[7] <= 27.0\ngini = 0.5\nsamples = 2\nvalue = [1, 1]"] ;
96 -> 97 ;
98 [label="gini = 0.0\nsamples = 1\nvalue = [1, 0]"] ;
97 -> 98 ;
99 [label="gini = 0.0\nsamples = 1\nvalue = [0, 1]"] ;
97 -> 99 ;
100 [label="gini = 0.0\nsamples = 8\nvalue = [0, 8]"] ;
96 -> 100 ;
101 [label="X[0] <= 59.0\ngini = 0.278\nsamples = 6\nvalue = [5, 1]"] ;
93 -> 101 ;
102 [label="gini = 0.0\nsamples = 5\nvalue = [5, 0]"] ;
101 -> 102 ;
103 [label="gini = 0.0\nsamples = 1\nvalue = [0, 1]"] ;
101 -> 103 ;
104 [label="X[7] <= 15.5\ngini = 0.465\nsamples = 95\nvalue = [35, 60]"] ;
66 -> 104 ;
105 [label="X[6] <= 1296.0\ngini = 0.355\nsamples = 39\nvalue = [9, 30]"] ;
104 -> 105 ;
106 [label="X[6] <= 1273.0\ngini = 0.494\nsamples = 9\nvalue = [4, 5]"] ;
105 -> 106 ;
107 [label="X[0] <= 24.0\ngini = 0.408\nsamples = 7\nvalue = [2, 5]"] ;
106 -> 107 ;
108 [label="gini = 0.0\nsamples = 4\nvalue = [0, 4]"] ;
107 -> 108 ;
109 [label="X[4] <= 0.5\ngini = 0.444\nsamples = 3\nvalue = [2, 1]"] ;
107 -> 109 ;
110 [label="gini = 0.0\nsamples = 1\nvalue = [0, 1]"] ;
109 -> 110 ;
111 [label="gini = 0.0\nsamples = 2\nvalue = [2, 0]"] ;
109 -> 111 ;
112 [label="gini = 0.0\nsamples = 2\nvalue = [2, 0]"] ;
106 -> 112 ;
113 [label="X[6] <= 4759.0\ngini = 0.278\nsamples = 30\nvalue = [5, 25]"] ;
105 -> 113 ;
114 [label="X[2] <= 0.5\ngini = 0.204\nsamples = 26\nvalue = [3, 23]"] ;
113 -> 114 ;
115 [label="gini = 0.0\nsamples = 1\nvalue = [1, 0]"] ;
114 -> 115 ;
116 [label="X[5] <= 0.5\ngini = 0.147\nsamples = 25\nvalue = [2, 23]"] ;
114 -> 116 ;
117 [label="gini = 0.0\nsamples = 17\nvalue = [0, 17]"] ;
116 -> 117 ;
118 [label="gini = 0.375\nsamples = 8\nvalue = [2, 6]"] ;
116 -> 118 ;
119 [label="X[2] <= 1.0\ngini = 0.5\nsamples = 4\nvalue = [2, 2]"] ;
113 -> 119 ;
120 [label="gini = 0.0\nsamples = 1\nvalue = [0, 1]"] ;
119 -> 120 ;
121 [label="X[0] <= 46.0\ngini = 0.444\nsamples = 3\nvalue = [2, 1]"] ;
119 -> 121 ;
122 [label="gini = 0.0\nsamples = 2\nvalue = [2, 0]"] ;
121 -> 122 ;
123 [label="gini = 0.0\nsamples = 1\nvalue = [0, 1]"] ;
121 -> 123 ;
124 [label="X[6] <= 3520.0\ngini = 0.497\nsamples = 56\nvalue = [26, 30]"] ;
104 -> 124 ;
125 [label="X[4] <= 1.5\ngini = 0.491\nsamples = 37\nvalue = [21, 16]"] ;
124 -> 125 ;
126 [label="X[8] <= 4.5\ngini = 0.463\nsamples = 33\nvalue = [21, 12]"] ;
125 -> 126 ;
127 [label="X[6] <= 1121.0\ngini = 0.351\nsamples = 22\nvalue = [17, 5]"] ;
126 -> 127 ;
128 [label="gini = 0.0\nsamples = 1\nvalue = [0, 1]"] ;
127 -> 128 ;
129 [label="gini = 0.308\nsamples = 21\nvalue = [17, 4]"] ;
127 -> 129 ;
130 [label="X[6] <= 2849.0\ngini = 0.463\nsamples = 11\nvalue = [4, 7]"] ;
126 -> 130 ;
131 [label="gini = 0.42\nsamples = 10\nvalue = [3, 7]"] ;
130 -> 131 ;
132 [label="gini = 0.0\nsamples = 1\nvalue = [1, 0]"] ;
130 -> 132 ;
133 [label="gini = 0.0\nsamples = 4\nvalue = [0, 4]"] ;
125 -> 133 ;
134 [label="X[6] <= 3917.0\ngini = 0.388\nsamples = 19\nvalue = [5, 14]"] ;
124 -> 134 ;
135 [label="gini = 0.0\nsamples = 7\nvalue = [0, 7]"] ;
134 -> 135 ;
136 [label="X[6] <= 4405.0\ngini = 0.486\nsamples = 12\nvalue = [5, 7]"] ;
134 -> 136 ;
137 [label="X[8] <= 2.5\ngini = 0.32\nsamples = 5\nvalue = [4, 1]"] ;
136 -> 137 ;
138 [label="gini = 0.0\nsamples = 3\nvalue = [3, 0]"] ;
137 -> 138 ;
139 [label="gini = 0.5\nsamples = 2\nvalue = [1, 1]"] ;
137 -> 139 ;
140 [label="X[0] <= 54.0\ngini = 0.245\nsamples = 7\nvalue = [1, 6]"] ;
136 -> 140 ;
141 [label="gini = 0.0\nsamples = 6\nvalue = [0, 6]"] ;
140 -> 141 ;
142 [label="gini = 0.0\nsamples = 1\nvalue = [1, 0]"] ;
140 -> 142 ;
143 [label="gini = 0.0\nsamples = 7\nvalue = [7, 0]"] ;
1 -> 143 ;
144 [label="X[3] <= 1.5\ngini = 0.493\nsamples = 131\nvalue = [58, 73]"] ;
0 -> 144 [labeldistance=2.5, labelangle=-45, headlabel="False"] ;
145 [label="X[0] <= 26.5\ngini = 0.476\nsamples = 115\nvalue = [45, 70]"] ;
144 -> 145 ;
146 [label="X[6] <= 10052.0\ngini = 0.455\nsamples = 20\nvalue = [13, 7]"] ;
145 -> 146 ;
147 [label="X[6] <= 4061.5\ngini = 0.401\nsamples = 18\nvalue = [13, 5]"] ;
146 -> 147 ;
148 [label="X[3] <= 0.5\ngini = 0.375\nsamples = 4\nvalue = [1, 3]"] ;
147 -> 148 ;
149 [label="gini = 0.0\nsamples = 1\nvalue = [1, 0]"] ;
148 -> 149 ;
150 [label="gini = 0.0\nsamples = 3\nvalue = [0, 3]"] ;
148 -> 150 ;
151 [label="X[5] <= 1.5\ngini = 0.245\nsamples = 14\nvalue = [12, 2]"] ;
147 -> 151 ;
152 [label="X[6] <= 8358.0\ngini = 0.153\nsamples = 12\nvalue = [11, 1]"] ;
151 -> 152 ;
153 [label="gini = 0.0\nsamples = 8\nvalue = [8, 0]"] ;
152 -> 153 ;
154 [label="X[6] <= 8879.0\ngini = 0.375\nsamples = 4\nvalue = [3, 1]"] ;
152 -> 154 ;
155 [label="gini = 0.0\nsamples = 1\nvalue = [0, 1]"] ;
154 -> 155 ;
156 [label="gini = 0.0\nsamples = 3\nvalue = [3, 0]"] ;
154 -> 156 ;
157 [label="X[0] <= 25.0\ngini = 0.5\nsamples = 2\nvalue = [1, 1]"] ;
151 -> 157 ;
158 [label="gini = 0.0\nsamples = 1\nvalue = [0, 1]"] ;
157 -> 158 ;
159 [label="gini = 0.0\nsamples = 1\nvalue = [1, 0]"] ;
157 -> 159 ;
160 [label="gini = 0.0\nsamples = 2\nvalue = [0, 2]"] ;
146 -> 160 ;
161 [label="X[0] <= 56.5\ngini = 0.447\nsamples = 95\nvalue = [32, 63]"] ;
145 -> 161 ;
162 [label="X[0] <= 39.5\ngini = 0.429\nsamples = 90\nvalue = [28, 62]"] ;
161 -> 162 ;
163 [label="X[6] <= 16301.5\ngini = 0.379\nsamples = 59\nvalue = [15, 44]"] ;
162 -> 163 ;
164 [label="X[0] <= 34.5\ngini = 0.366\nsamples = 58\nvalue = [14, 44]"] ;
163 -> 164 ;
165 [label="X[6] <= 7118.5\ngini = 0.42\nsamples = 40\nvalue = [12, 28]"] ;
164 -> 165 ;
166 [label="X[6] <= 6686.0\ngini = 0.464\nsamples = 30\nvalue = [11, 19]"] ;
165 -> 166 ;
167 [label="X[6] <= 5275.0\ngini = 0.417\nsamples = 27\nvalue = [8, 19]"] ;
166 -> 167 ;
168 [label="gini = 0.472\nsamples = 21\nvalue = [8, 13]"] ;
167 -> 168 ;
169 [label="gini = 0.0\nsamples = 6\nvalue = [0, 6]"] ;
167 -> 169 ;
170 [label="gini = 0.0\nsamples = 3\nvalue = [3, 0]"] ;
166 -> 170 ;
171 [label="X[8] <= 0.5\ngini = 0.18\nsamples = 10\nvalue = [1, 9]"] ;
165 -> 171 ;
172 [label="gini = 0.0\nsamples = 1\nvalue = [1, 0]"] ;
171 -> 172 ;
173 [label="gini = 0.0\nsamples = 9\nvalue = [0, 9]"] ;
171 -> 173 ;
174 [label="X[6] <= 12279.0\ngini = 0.198\nsamples = 18\nvalue = [2, 16]"] ;
164 -> 174 ;
175 [label="X[6] <= 2059.0\ngini = 0.111\nsamples = 17\nvalue = [1, 16]"] ;
174 -> 175 ;
176 [label="X[6] <= 1364.0\ngini = 0.5\nsamples = 2\nvalue = [1, 1]"] ;
175 -> 176 ;
177 [label="gini = 0.0\nsamples = 1\nvalue = [0, 1]"] ;
176 -> 177 ;
178 [label="gini = 0.0\nsamples = 1\nvalue = [1, 0]"] ;
176 -> 178 ;
179 [label="gini = 0.0\nsamples = 15\nvalue = [0, 15]"] ;
175 -> 179 ;
180 [label="gini = 0.0\nsamples = 1\nvalue = [1, 0]"] ;
174 -> 180 ;
181 [label="gini = 0.0\nsamples = 1\nvalue = [1, 0]"] ;
163 -> 181 ;
182 [label="X[6] <= 10246.5\ngini = 0.487\nsamples = 31\nvalue = [13, 18]"] ;
162 -> 182 ;
183 [label="X[2] <= 1.5\ngini = 0.5\nsamples = 26\nvalue = [13, 13]"] ;
182 -> 183 ;
184 [label="gini = 0.0\nsamples = 3\nvalue = [0, 3]"] ;
183 -> 184 ;
185 [label="X[0] <= 54.5\ngini = 0.491\nsamples = 23\nvalue = [13, 10]"] ;
183 -> 185 ;
186 [label="X[8] <= 0.5\ngini = 0.472\nsamples = 21\nvalue = [13, 8]"] ;
185 -> 186 ;
187 [label="gini = 0.0\nsamples = 1\nvalue = [0, 1]"] ;
186 -> 187 ;
188 [label="X[8] <= 3.5\ngini = 0.455\nsamples = 20\nvalue = [13, 7]"] ;
186 -> 188 ;
189 [label="gini = 0.355\nsamples = 13\nvalue = [10, 3]"] ;
188 -> 189 ;
190 [label="gini = 0.49\nsamples = 7\nvalue = [3, 4]"] ;
188 -> 190 ;
191 [label="gini = 0.0\nsamples = 2\nvalue = [0, 2]"] ;
185 -> 191 ;
192 [label="gini = 0.0\nsamples = 5\nvalue = [0, 5]"] ;
182 -> 192 ;
193 [label="X[5] <= 0.5\ngini = 0.32\nsamples = 5\nvalue = [4, 1]"] ;
161 -> 193 ;
194 [label="X[2] <= 2.5\ngini = 0.5\nsamples = 2\nvalue = [1, 1]"] ;
193 -> 194 ;
195 [label="gini = 0.0\nsamples = 1\nvalue = [1, 0]"] ;
194 -> 195 ;
196 [label="gini = 0.0\nsamples = 1\nvalue = [0, 1]"] ;
194 -> 196 ;
197 [label="gini = 0.0\nsamples = 3\nvalue = [3, 0]"] ;
193 -> 197 ;
198 [label="X[5] <= 0.5\ngini = 0.305\nsamples = 16\nvalue = [13, 3]"] ;
144 -> 198 ;
199 [label="gini = 0.0\nsamples = 9\nvalue = [9, 0]"] ;
198 -> 199 ;
200 [label="X[7] <= 42.0\ngini = 0.49\nsamples = 7\nvalue = [4, 3]"] ;
198 -> 200 ;
201 [label="X[8] <= 3.5\ngini = 0.48\nsamples = 5\nvalue = [2, 3]"] ;
200 -> 201 ;
202 [label="gini = 0.0\nsamples = 2\nvalue = [0, 2]"] ;
201 -> 202 ;
203 [label="X[0] <= 26.5\ngini = 0.444\nsamples = 3\nvalue = [2, 1]"] ;
201 -> 203 ;
204 [label="gini = 0.0\nsamples = 1\nvalue = [0, 1]"] ;
203 -> 204 ;
205 [label="gini = 0.0\nsamples = 2\nvalue = [2, 0]"] ;
203 -> 205 ;
206 [label="gini = 0.0\nsamples = 2\nvalue = [2, 0]"] ;
200 -> 206 ;
}